{
  "n_features": 5,
  "n_classes": 3,
  "classes": [
    0,
    1,
    2
  ],
  "trees": [
    {
      "children_left": [
        1,
        -1,
        3,
        4,
        -1,
        6,
        -1,
        -1,
        9,
        10,
        -1,
        12,
        -1,
        -1,
        15,
        16,
        -1,
        -1,
        -1
      ],
      "children_right": [
        2,
        -1,
        8,
        5,
        -1,
        7,
        -1,
        -1,
        14,
        11,
        -1,
        13,
        -1,
        -1,
        18,
        17,
        -1,
        -1,
        -1
      ],
      "feature": [
        0,
        -2,
        1,
        2,
        -2,
        0,
        -2,
        -2,
        2,
        1,
        -2,
        3,
        -2,
        -2,
        2,
        1,
        -2,
        -2,
        -2
      ],
      "threshold": [
        0.9835000038146973,
        -2.0,
        1.25,
        2.4166667461395264,
        -2.0,
        3.5,
        -2.0,
        -2.0,
        1.8166666626930237,
        1.949999988079071,
        -2.0,
        2.3150449991226196,
        -2.0,
        -2.0,
        2.066666603088379,
        1.6166666746139526,
        -2.0,
        -2.0,
        -2.0
      ],
      "values": [
        [
          0.3488088519778593,
          0.3159499980173844,
          0.33524115000476506
        ],
        [
          1.0,
          0.0,
          0.0
        ],
        [
          0.0,
          0.4851877962054827,
          0.5148122037945189
        ],
        [
          0.0,
          0.6131615312791806,
          0.386838468720822
        ],
        [
          0.0,
          1.0,
          0.0
        ],
        [
          0.0,
          0.04000296592889184,
          0.9599970340711084
        ],
        [
          0.0,
          1.0,
          0.0
        ],
        [
          0.0,
          0.0,
          1.0
        ],
        [
          0.0,
          0.20180952065896984,
          0.7981904793410302
        ],
        [
          0.0,
          0.7305851506575674,
          0.26941484934243454
        ],
        [
          0.0,
          1.0,
          0.0
        ],
        [
          0.0,
          0.1746143057503506,
          0.8253856942496494
        ],
        [
          0.0,
          0.1369385884509624,
          0.8630614115490375
        ],
        [
          0.0,
          0.2606783919597989,
          0.7393216080402009
        ],
        [
          0.0,
          0.01120628872320317,
          0.9887937112767969
        ],
        [
          0.0,
          0.07801973993420022,
          0.9219802600657999
        ],
        [
          0.0,
          0.3882536382536383,
          0.6117463617463619
        ],
        [
          0.0,
          0.0,
          1.0
        ],
        [
          0.0,
          0.0,
          1.0
        ]
      ]
    },
    {
      "children_left": [
        1,
        2,
        -1,
        4,
        5,
        -1,
        -1,
        -1,
        9,
        10,
        -1,
        -1,
        13,
        14,
        15,
        -1,
        -1,
        18,
        -1,
        20,
        -1,
        -1,
        23,
        -1,
        -1
      ],
      "children_right": [
        8,
        3,
        -1,
        7,
        6,
        -1,
        -1,
        -1,
        12,
        11,
        -1,
        -1,
        22,
        17,
        16,
        -1,
        -1,
        19,
        -1,
        21,
        -1,
        -1,
        24,
        -1,
        -1
      ],
      "feature": [
        1,
        0,
        -2,
        3,
        0,
        -2,
        -2,
        -2,
        3,
        0,
        -2,
        -2,
        0,
        1,
        0,
        -2,
        -2,
        2,
        -2,
        1,
        -2,
        -2,
        4,
        -2,
        -2
      ],
      "threshold": [
        0.550000011920929,
        0.9835000038146973,
        -2.0,
        0.13192392885684967,
        3.8834999799728394,
        -2.0,
        -2.0,
        -2.0,
        0.3621116727590561,
        3.4499999284744263,
        -2.0,
        -2.0,
        3.5164999961853027,
        0.6500000059604645,
        0.9835000038146973,
        -2.0,
        -2.0,
        0.3500000089406967,
        -2.0,
        0.6833333373069763,
        -2.0,
        -2.0,
        1.5,
        -2.0,
        -2.0
      ],
      "values": [
        [
          0.32221729958078354,
          0.33293830676894043,
          0.3448443936502842
        ],
        [
          0.7052087589584123,
          0.21111473265836378,
          0.08367650838322438
        ],
        [
          1.0,
          0.0,
          0.0
        ],
        [
          0.0,
          0.7161499504273957,
          0.2838500495726045
        ],
        [
          0.0,
          0.03769985465116278,
          0.9623001453488371
        ],
        [
          0.0,
          0.26067839195979897,
          0.739321608040201
        ],
        [
          0.0,
          0.0,
          1.0
        ],
        [
          0.0,
          1.0,
          0.0
        ],
        [
          0.033742576787645896,
          0.4246975899350052,
          0.541559833277352
        ],
        [
          0.0,
          0.05298400771353528,
          0.9470159922864648
        ],
        [
          0.0,
          1.0,
          0.0
        ],
        [
          0.0,
          0.0,
          1.0
        ],
        [
          0.04808375788315952,
          0.5826823174159234,
          0.3692339247009193
        ],
        [
          0.07623072921345715,
          0.9237692707865416,
          0.0
        ],
        [
          0.3851579827655169,
          0.6148420172344843,
          0.0
        ],
        [
          1.0,
          0.0,
          0.0
        ],
        [
          0.0,
          1.0,
          0.0
        ],
        [
          0.011884987251659804,
          0.9881150127483399,
          0.0
        ],
        [
          0.7461172741679873,
          0.25388272583201266,
          0.0
        ],
        [
          0.0,
          1.0,
          0.0
        ],
        [
          0.0,
          1.0,
          0.0
        ],
        [
          0.0,
          1.0,
          0.0
        ],
        [
          0.0,
          0.0,
          1.0
        ],
        [
          0.0,
          0.0,
          1.0
        ],
        [
          0.0,
          0.0,
          1.0
        ]
      ]
    },
    {
      "children_left": [
        1,
        2,
        3,
        -1,
        -1,
        6,
        -1,
        -1,
        -1
      ],
      "children_right": [
        8,
        5,
        4,
        -1,
        -1,
        7,
        -1,
        -1,
        -1
      ],
      "feature": [
        0,
        1,
        0,
        -2,
        -2,
        0,
        -2,
        -2,
        -2
      ],
      "threshold": [
        3.5,
        0.5833333432674408,
        0.9835000038146973,
        -2.0,
        -2.0,
        1.0164999961853027,
        -2.0,
        -2.0,
        -2.0
      ],
      "values": [
        [
          0.3288047577622687,
          0.3225681872196171,
          0.34862705501812175
        ],
        [
          0.5047872502156461,
          0.495212749784368,
          0.0
        ],
        [
          0.7760596362790683,
          0.22394036372093262,
          0.0
        ],
        [
          1.0,
          0.0,
          0.0
        ],
        [
          0.0,
          1.0,
          0.0
        ],
        [
          0.007999347546844091,
          0.9920006524531558,
          0.0
        ],
        [
          0.7677756033920417,
          0.2322243966079582,
          0.0
        ],
        [
          0.0,
          1.0,
          0.0
        ],
        [
          0.0,
          0.0,
          1.0
        ]
      ]
    },
    {
      "children_left": [
        1,
        -1,
        3,
        -1,
        -1
      ],
      "children_right": [
        2,
        -1,
        4,
        -1,
        -1
      ],
      "feature": [
        0,
        -2,
        0,
        -2,
        -2
      ],
      "threshold": [
        0.9835000038146973,
        -2.0,
        3.5164999961853027,
        -2.0,
        -2.0
      ],
      "values": [
        [
          0.35384501346866715,
          0.3472981984299558,
          0.2988567881013871
        ],
        [
          1.0,
          0.0,
          0.0
        ],
        [
          0.0,
          0.5374843585039959,
          0.46251564149600777
        ],
        [
          0.0,
          1.0,
          0.0
        ],
        [
          0.0,
          0.0,
          1.0
        ]
      ]
    },
    {
      "children_left": [
        1,
        2,
        3,
        -1,
        -1,
        -1,
        7,
        8,
        9,
        -1,
        -1,
        -1,
        13,
        14,
        15,
        -1,
        -1,
        18,
        -1,
        -1,
        21,
        22,
        -1,
        24,
        -1,
        -1,
        27,
        -1,
        29,
        -1,
        -1
      ],
      "children_right": [
        6,
        5,
        4,
        -1,
        -1,
        -1,
        12,
        11,
        10,
        -1,
        -1,
        -1,
        20,
        17,
        16,
        -1,
        -1,
        19,
        -1,
        -1,
        26,
        23,
        -1,
        25,
        -1,
        -1,
        28,
        -1,
        30,
        -1,
        -1
      ],
      "feature": [
        2,
        0,
        2,
        -2,
        -2,
        -2,
        2,
        0,
        0,
        -2,
        -2,
        -2,
        3,
        1,
        3,
        -2,
        -2,
        1,
        -2,
        -2,
        1,
        1,
        -2,
        3,
        -2,
        -2,
        0,
        -2,
        0,
        -2,
        -2
      ],
      "threshold": [
        0.5833333432674408,
        0.9835000038146973,
        0.21666666865348816,
        -2.0,
        -2.0,
        -2.0,
        1.8166666626930237,
        3.5665000677108765,
        0.9835000038146973,
        -2.0,
        -2.0,
        -2.0,
        0.1318255066871643,
        0.38333334028720856,
        0.079927247017622,
        -2.0,
        -2.0,
        0.4166666716337204,
        -2.0,
        -2.0,
        0.7166666686534882,
        0.550000011920929,
        -2.0,
        0.24387796968221664,
        -2.0,
        -2.0,
        3.5164999961853027,
        -2.0,
        3.6334999799728394,
        -2.0,
        -2.0
      ],
      "values": [
        [
          0.3418166032276122,
          0.3276433719557559,
          0.3305400248166421
        ],
        [
          0.8921624815655987,
          0.10783751843440186,
          0.0
        ],
        [
          1.0,
          0.0,
          0.0
        ],
        [
          1.0,
          0.0,
          0.0
        ],
        [
          1.0,
          0.0,
          0.0
        ],
        [
          0.0,
          1.0,
          0.0
        ],
        [
          0.016804643078399677,
          0.45745179628880733,
          0.5257435606327971
        ],
        [
          0.03977659441081249,
          0.9150624528988112,
          0.04516095269037675
        ],
        [
          0.0416579050918455,
          0.9583420949081544,
          0.0
        ],
        [
          1.0,
          0.0,
          0.0
        ],
        [
          0.0,
          1.0,
          0.0
        ],
        [
          0.0,
          0.0,
          1.0
        ],
        [
          0.0,
          0.12269643998814861,
          0.8773035600118512
        ],
        [
          0.0,
          0.031917279981200024,
          0.9680827200188001
        ],
        [
          0.0,
          0.17461430575035056,
          0.8253856942496494
        ],
        [
          0.0,
          0.0,
          1.0
        ],
        [
          0.0,
          0.699438202247191,
          0.300561797752809
        ],
        [
          0.0,
          0.003195134157139009,
          0.996804865842861
        ],
        [
          0.0,
          0.03405826836274107,
          0.9659417316372589
        ],
        [
          0.0,
          0.0,
          1.0
        ],
        [
          0.0,
          0.16013002801416543,
          0.8398699719858337
        ],
        [
          0.0,
          0.7627876980128181,
          0.2372123019871821
        ],
        [
          0.0,
          1.0,
          0.0
        ],
        [
          0.0,
          0.5899240471047313,
          0.4100759528952686
        ],
        [
          0.0,
          0.040593413759373975,
          0.959406586240626
        ],
        [
          0.0,
          1.0,
          0.0
        ],
        [
          0.0,
          0.08619368110810562,
          0.9138063188918942
        ],
        [
          0.0,
          1.0,
          0.0
        ],
        [
          0.0,
          0.0,
          1.0
        ],
        [
          0.0,
          0.0,
          1.0
        ],
        [
          0.0,
          0.0,
          1.0
        ]
      ]
    },
    {
      "children_left": [
        1,
        -1,
        3,
        4,
        -1,
        6,
        7,
        -1,
        -1,
        10,
        -1,
        -1,
        13,
        14,
        -1,
        -1,
        17,
        -1,
        -1
      ],
      "children_right": [
        2,
        -1,
        12,
        5,
        -1,
        9,
        8,
        -1,
        -1,
        11,
        -1,
        -1,
        16,
        15,
        -1,
        -1,
        18,
        -1,
        -1
      ],
      "feature": [
        0,
        -2,
        3,
        1,
        -2,
        3,
        2,
        -2,
        -2,
        0,
        -2,
        -2,
        1,
        0,
        -2,
        -2,
        0,
        -2,
        -2
      ],
      "threshold": [
        0.9835000038146973,
        -2.0,
        0.300431028008461,
        0.28333334624767303,
        -2.0,
        0.18647052347660065,
        3.183333396911621,
        -2.0,
        -2.0,
        3.566499948501587,
        -2.0,
        -2.0,
        1.25,
        3.5164999961853027,
        -2.0,
        -2.0,
        3.5164999961853027,
        -2.0,
        -2.0
      ],
      "values": [
        [
          0.3253118018744377,
          0.3554449251471065,
          0.3192432729784642
        ],
        [
          1.0,
          0.0,
          0.0
        ],
        [
          0.0,
          0.5268284314659903,
          0.47317156853401915
        ],
        [
          0.0,
          0.12968416450194195,
          0.8703158354980585
        ],
        [
          0.0,
          1.0,
          0.0
        ],
        [
          0.0,
          0.10533343027675154,
          0.8946665697232487
        ],
        [
          0.0,
          0.03152098234065449,
          0.9684790176593457
        ],
        [
          0.0,
          1.0,
          0.0
        ],
        [
          0.0,
          0.0,
          1.0
        ],
        [
          0.0,
          0.2291803104589625,
          0.7708196895410377
        ],
        [
          0.0,
          1.0,
          0.0
        ],
        [
          0.0,
          0.0,
          1.0
        ],
        [
          0.0,
          0.6733417305352162,
          0.3266582694647853
        ],
        [
          0.0,
          0.9447534558426636,
          0.05524654415733763
        ],
        [
          0.0,
          1.0,
          0.0
        ],
        [
          0.0,
          0.0,
          1.0
        ],
        [
          0.0,
          0.25513063918271395,
          0.7448693608172866
        ],
        [
          0.0,
          1.0,
          0.0
        ],
        [
          0.0,
          0.0,
          1.0
        ]
      ]
    },
    {
      "children_left": [
        1,
        2,
        -1,
        4,
        -1,
        6,
        -1,
        -1,
        9,
        10,
        -1,
        -1,
        13,
        14,
        15,
        -1,
        -1,
        18,
        -1,
        20,
        -1,
        -1,
        -1
      ],
      "children_right": [
        8,
        3,
        -1,
        5,
        -1,
        7,
        -1,
        -1,
        12,
        11,
        -1,
        -1,
        22,
        17,
        16,
        -1,
        -1,
        19,
        -1,
        21,
        -1,
        -1,
        -1
      ],
      "feature": [
        2,
        0,
        -2,
        0,
        -2,
        4,
        -2,
        -2,
        2,
        0,
        -2,
        -2,
        3,
        3,
        1,
        -2,
        -2,
        1,
        -2,
        2,
        -2,
        -2,
        -2
      ],
      "threshold": [
        1.850000023841858,
        0.9835000038146973,
        -2.0,
        3.4665000438690186,
        -2.0,
        5.0,
        -2.0,
        -2.0,
        2.5833332538604736,
        3.5164999961853027,
        -2.0,
        -2.0,
        0.2683279812335968,
        0.10690462216734886,
        0.3500000089406967,
        -2.0,
        -2.0,
        0.550000011920929,
        -2.0,
        3.5166667699813843,
        -2.0,
        -2.0,
        -2.0
      ],
      "values": [
        [
          0.3337359403158464,
          0.32493966436391936,
          0.34132439532024417
        ],
        [
          0.5205736278552482,
          0.45053588641741293,
          0.02889048572735172
        ],
        [
          1.0,
          0.0,
          0.0
        ],
        [
          0.0,
          0.9397394732415172,
          0.060260526758482445
        ],
        [
          0.0,
          1.0,
          0.0
        ],
        [
          0.0,
          0.0,
          1.0
        ],
        [
          0.0,
          0.0,
          1.0
        ],
        [
          0.0,
          0.0,
          1.0
        ],
        [
          0.0,
          0.10059534807975953,
          0.8994046519202401
        ],
        [
          0.0,
          0.27683665408584285,
          0.7231633459141592
        ],
        [
          0.0,
          1.0,
          0.0
        ],
        [
          0.0,
          0.0,
          1.0
        ],
        [
          0.0,
          0.017230085066336973,
          0.9827699149336631
        ],
        [
          0.0,
          0.02779390096887977,
          0.9722060990311203
        ],
        [
          0.0,
          0.0031951341571390076,
          0.996804865842861
        ],
        [
          0.0,
          0.018869354349802966,
          0.981130645650197
        ],
        [
          0.0,
          0.0,
          1.0
        ],
        [
          0.0,
          0.06175267045756497,
          0.9382473295424351
        ],
        [
          0.0,
          1.0,
          0.0
        ],
        [
          0.0,
          0.02296624239070282,
          0.9770337576092972
        ],
        [
          0.0,
          0.3459294248402333,
          0.6540705751597665
        ],
        [
          0.0,
          0.0,
          1.0
        ],
        [
          0.0,
          0.0,
          1.0
        ]
      ]
    },
    {
      "children_left": [
        1,
        -1,
        3,
        4,
        5,
        6,
        -1,
        8,
        -1,
        -1,
        11,
        12,
        -1,
        -1,
        -1,
        16,
        17,
        -1,
        -1,
        -1,
        21,
        -1,
        23,
        -1,
        -1
      ],
      "children_right": [
        2,
        -1,
        20,
        15,
        10,
        7,
        -1,
        9,
        -1,
        -1,
        14,
        13,
        -1,
        -1,
        -1,
        19,
        18,
        -1,
        -1,
        -1,
        22,
        -1,
        24,
        -1,
        -1
      ],
      "feature": [
        0,
        -2,
        2,
        2,
        3,
        3,
        -2,
        0,
        -2,
        -2,
        2,
        3,
        -2,
        -2,
        -2,
        4,
        0,
        -2,
        -2,
        -2,
        0,
        -2,
        2,
        -2,
        -2
      ],
      "threshold": [
        0.9835000038146973,
        -2.0,
        1.949999988079071,
        1.8166666626930237,
        1.9999967217445374,
        1.39130300283432,
        -2.0,
        3.0164999961853027,
        -2.0,
        -2.0,
        0.9833333194255829,
        3.257569432258606,
        -2.0,
        -2.0,
        -2.0,
        5.5,
        3.166499972343445,
        -2.0,
        -2.0,
        -2.0,
        3.5164999961853027,
        -2.0,
        2.049999952316284,
        -2.0,
        -2.0
      ],
      "values": [
        [
          0.3581949072063399,
          0.31940955174235425,
          0.32239554105131435
        ],
        [
          1.0,
          0.0,
          0.0
        ],
        [
          0.0,
          0.4976737569220919,
          0.5023262430779165
        ],
        [
          0.0,
          0.9140015030687659,
          0.08599849693123471
        ],
        [
          0.0,
          0.9424330781241195,
          0.057566921875881714
        ],
        [
          0.0,
          0.9854583642204099,
          0.01454163577958978
        ],
        [
          0.0,
          1.0,
          0.0
        ],
        [
          0.0,
          0.8918993387215285,
          0.10810066127847172
        ],
        [
          0.0,
          1.0,
          0.0
        ],
        [
          0.0,
          0.22001325381047046,
          0.7799867461895293
        ],
        [
          0.0,
          0.48770402611534275,
          0.5122959738846572
        ],
        [
          0.0,
          0.9009592729720632,
          0.09904072702793669
        ],
        [
          0.0,
          1.0,
          0.0
        ],
        [
          0.0,
          0.596917808219178,
          0.40308219178082194
        ],
        [
          0.0,
          0.0449012713010549,
          0.9550987286989451
        ],
        [
          0.0,
          0.5644168941111163,
          0.43558310588888366
        ],
        [
          0.0,
          0.8162660006244147,
          0.18373399937558532
        ],
        [
          0.0,
          1.0,
          0.0
        ],
        [
          0.0,
          0.29731343283582085,
          0.7026865671641791
        ],
        [
          0.0,
          0.19795570698466775,
          0.8020442930153321
        ],
        [
          0.0,
          0.07329737091299855,
          0.9267026290870011
        ],
        [
          0.0,
          1.0,
          0.0
        ],
        [
          0.0,
          0.0,
          1.0
        ],
        [
          0.0,
          0.0,
          1.0
        ],
        [
          0.0,
          0.0,
          1.0
        ]
      ]
    },
    {
      "children_left": [
        1,
        2,
        3,
        4,
        5,
        6,
        -1,
        -1,
        9,
        -1,
        -1,
        -1,
        13,
        14,
        -1,
        -1,
        -1,
        18,
        19,
        20,
        21,
        -1,
        -1,
        24,
        -1,
        -1,
        -1,
        28,
        29,
        -1,
        31,
        -1,
        -1,
        -1,
        35,
        36,
        37,
        38,
        -1,
        -1,
        41,
        -1,
        -1,
        44,
        -1,
        46,
        -1,
        48,
        -1,
        -1,
        51,
        -1,
        -1
      ],
      "children_right": [
        34,
        17,
        12,
        11,
        8,
        7,
        -1,
        -1,
        10,
        -1,
        -1,
        -1,
        16,
        15,
        -1,
        -1,
        -1,
        27,
        26,
        23,
        22,
        -1,
        -1,
        25,
        -1,
        -1,
        -1,
        33,
        30,
        -1,
        32,
        -1,
        -1,
        -1,
        50,
        43,
        40,
        39,
        -1,
        -1,
        42,
        -1,
        -1,
        45,
        -1,
        47,
        -1,
        49,
        -1,
        -1,
        52,
        -1,
        -1
      ],
      "feature": [
        2,
        1,
        3,
        1,
        3,
        1,
        -2,
        -2,
        2,
        -2,
        -2,
        -2,
        0,
        2,
        -2,
        -2,
        -2,
        3,
        0,
        3,
        2,
        -2,
        -2,
        0,
        -2,
        -2,
        -2,
        0,
        3,
        -2,
        0,
        -2,
        -2,
        -2,
        1,
        3,
        3,
        2,
        -2,
        -2,
        0,
        -2,
        -2,
        2,
        -2,
        3,
        -2,
        0,
        -2,
        -2,
        0,
        -2,
        -2
      ],
      "threshold": [
        1.850000023841858,
        0.550000011920929,
        0.5240267217159271,
        0.3166666775941849,
        0.2928917109966278,
        0.20000000298023224,
        -2.0,
        -2.0,
        0.6500000059604645,
        -2.0,
        -2.0,
        -2.0,
        0.9835000038146973,
        0.21666666865348816,
        -2.0,
        -2.0,
        -2.0,
        2.0142828226089478,
        3.4165000915527344,
        1.687834620475769,
        0.4166666716337204,
        -2.0,
        -2.0,
        1.0665000081062317,
        -2.0,
        -2.0,
        -2.0,
        3.5164999961853027,
        2.7785632610321045,
        -2.0,
        1.9164999723434448,
        -2.0,
        -2.0,
        -2.0,
        1.0833333730697632,
        0.14558448642492294,
        0.11241275444626808,
        4.516666650772095,
        -2.0,
        -2.0,
        3.6334999799728394,
        -2.0,
        -2.0,
        2.4833333492279053,
        -2.0,
        0.1777089238166809,
        -2.0,
        3.5164999961853027,
        -2.0,
        -2.0,
        3.5164999961853027,
        -2.0,
        -2.0
      ],
      "values": [
        [
          0.32270272742166106,
          0.3434317766770698,
          0.3338654959012784
        ],
        [
          0.4976479673108294,
          0.4731695511723622,
          0.029182481516815337
        ],
        [
          0.820876247234386,
          0.1791237527656136,
          0.0
        ],
        [
          0.3427908418748418,
          0.657209158125159,
          0.0
        ],
        [
          0.8506119594358318,
          0.14938804056416832,
          0.0
        ],
        [
          0.37543859649122807,
          0.6245614035087719,
          0.0
        ],
        [
          0.6879018118059613,
          0.3120981881940385,
          0.0
        ],
        [
          0.0,
          1.0,
          0.0
        ],
        [
          0.9840549417736638,
          0.01594505822633622,
          0.0
        ],
        [
          1.0,
          0.0,
          0.0
        ],
        [
          0.9296998420221169,
          0.07030015797788308,
          0.0
        ],
        [
          0.0,
          1.0,
          0.0
        ],
        [
          0.9044302363383802,
          0.09556976366161918,
          0.0
        ],
        [
          1.0,
          0.0,
          0.0
        ],
        [
          1.0,
          0.0,
          0.0
        ],
        [
          1.0,
          0.0,
          0.0
        ],
        [
          0.0,
          1.0,
          0.0
        ],
        [
          0.030882327443962153,
          0.8977935205723918,
          0.07132415198364567
        ],
        [
          0.023923195793439593,
          0.9418733596183488,
          0.03420344458821082
        ],
        [
          0.02483244604164759,
          0.9751675539583522,
          0.0
        ],
        [
          0.0087742185578077,
          0.9912257814421922,
          0.0
        ],
        [
          0.4857614527445316,
          0.5142385472554684,
          0.0
        ],
        [
          0.0,
          1.0,
          0.0
        ],
        [
          0.29242236024844714,
          0.7075776397515527,
          0.0
        ],
        [
          0.9296998420221169,
          0.07030015797788308,
          0.0
        ],
        [
          0.0,
          1.0,
          0.0
        ],
        [
          0.0,
          0.06587301587301586,
          0.9341269841269841
        ],
        [
          0.08938785183124726,
          0.5272136511576199,
          0.3833984970111328
        ],
        [
          0.14496859219115651,
          0.8550314078088435,
          0.0
        ],
        [
          0.0,
          1.0,
          0.0
        ],
        [
          0.3552671294898883,
          0.6447328705101117,
          0.0
        ],
        [
          0.7461172741679873,
          0.25388272583201266,
          0.0
        ],
        [
          0.0,
          1.0,
          0.0
        ],
        [
          0.0,
          0.0,
          1.0
        ],
        [
          0.0,
          0.104118413788372,
          0.8958815862116267
        ],
        [
          0.0,
          0.2133961285047099,
          0.7866038714952904
        ],
        [
          0.0,
          0.047954703027501724,
          0.9520452969724984
        ],
        [
          0.0,
          0.01632171476328598,
          0.9836782852367142
        ],
        [
          0.0,
          0.17461430575035058,
          0.8253856942496492
        ],
        [
          0.0,
          0.0,
          1.0
        ],
        [
          0.0,
          0.16242661448140897,
          0.837573385518591
        ],
        [
          0.0,
          1.0,
          0.0
        ],
        [
          0.0,
          0.0,
          1.0
        ],
        [
          0.0,
          0.47476673427991933,
          0.5252332657200812
        ],
        [
          0.0,
          1.0,
          0.0
        ],
        [
          0.0,
          0.11865214431586114,
          0.8813478556841388
        ],
        [
          0.0,
          0.33048919226393625,
          0.6695108077360636
        ],
        [
          0.0,
          0.0723056500456318,
          0.9276943499543683
        ],
        [
          0.0,
          1.0,
          0.0
        ],
        [
          0.0,
          0.0,
          1.0
        ],
        [
          0.0,
          0.026440950778809237,
          0.9735590492211909
        ],
        [
          0.0,
          1.0,
          0.0
        ],
        [
          0.0,
          0.0,
          1.0
        ]
      ]
    },
    {
      "children_left": [
        1,
        -1,
        3,
        -1,
        -1
      ],
      "children_right": [
        2,
        -1,
        4,
        -1,
        -1
      ],
      "feature": [
        0,
        -2,
        0,
        -2,
        -2
      ],
      "threshold": [
        0.9835000038146973,
        -2.0,
        3.5164999961853027,
        -2.0,
        -2.0
      ],
      "values": [
        [
          0.3428884394241223,
          0.3492262355737776,
          0.307885325002108
        ],
        [
          1.0,
          0.0,
          0.0
        ],
        [
          0.0,
          0.5314565387766423,
          0.46854346122335844
        ],
        [
          0.0,
          1.0,
          0.0
        ],
        [
          0.0,
          0.0,
          1.0
        ]
      ]
    },
    {
      "children_left": [
        1,
        2,
        -1,
        -1,
        -1
      ],
      "children_right": [
        4,
        3,
        -1,
        -1,
        -1
      ],
      "feature": [
        0,
        0,
        -2,
        -2,
        -2
      ],
      "threshold": [
        3.5164999961853027,
        0.9835000038146973,
        -2.0,
        -2.0,
        -2.0
      ],
      "values": [
        [
          0.32543309018914063,
          0.31907373498578384,
          0.3554931748250854
        ],
        [
          0.504933504933513,
          0.4950664950665022,
          0.0
        ],
        [
          1.0,
          0.0,
          0.0
        ],
        [
          0.0,
          1.0,
          0.0
        ],
        [
          0.0,
          0.0,
          1.0
        ]
      ]
    },
    {
      "children_left": [
        1,
        2,
        -1,
        -1,
        -1
      ],
      "children_right": [
        4,
        3,
        -1,
        -1,
        -1
      ],
      "feature": [
        0,
        0,
        -2,
        -2,
        -2
      ],
      "threshold": [
        3.5164999961853027,
        0.9835000038146973,
        -2.0,
        -2.0,
        -2.0
      ],
      "values": [
        [
          0.330196682856924,
          0.3276718144238628,
          0.3421315027192225
        ],
        [
          0.5019189765458503,
          0.4980810234541643,
          0.0
        ],
        [
          1.0,
          0.0,
          0.0
        ],
        [
          0.0,
          1.0,
          0.0
        ],
        [
          0.0,
          0.0,
          1.0
        ]
      ]
    },
    {
      "children_left": [
        1,
        2,
        3,
        4,
        -1,
        -1,
        7,
        -1,
        -1,
        10,
        11,
        12,
        -1,
        -1,
        15,
        16,
        17,
        -1,
        19,
        -1,
        -1,
        -1,
        -1,
        -1,
        25,
        -1,
        27,
        -1,
        -1
      ],
      "children_right": [
        24,
        9,
        6,
        5,
        -1,
        -1,
        8,
        -1,
        -1,
        23,
        14,
        13,
        -1,
        -1,
        22,
        21,
        18,
        -1,
        20,
        -1,
        -1,
        -1,
        -1,
        -1,
        26,
        -1,
        28,
        -1,
        -1
      ],
      "feature": [
        2,
        2,
        0,
        2,
        -2,
        -2,
        1,
        -2,
        -2,
        0,
        1,
        0,
        -2,
        -2,
        1,
        4,
        0,
        -2,
        0,
        -2,
        -2,
        -2,
        -2,
        -2,
        0,
        -2,
        2,
        -2,
        -2
      ],
      "threshold": [
        1.850000023841858,
        0.5833333432674408,
        0.9835000038146973,
        0.21666666865348816,
        -2.0,
        -2.0,
        1.5166666507720947,
        -2.0,
        -2.0,
        3.583500027656555,
        0.3166666775941849,
        1.0,
        -2.0,
        -2.0,
        0.38333334028720856,
        3.5,
        1.050000011920929,
        -2.0,
        1.2335000038146973,
        -2.0,
        -2.0,
        -2.0,
        -2.0,
        -2.0,
        3.5164999961853027,
        -2.0,
        1.949999988079071,
        -2.0,
        -2.0
      ],
      "values": [
        [
          0.3258004198662081,
          0.3355554378576897,
          0.33864414227611167
        ],
        [
          0.5054134512341637,
          0.463440033629545,
          0.03114651513629727
        ],
        [
          0.8669034050364608,
          0.11845767967120581,
          0.014638915292333719
        ],
        [
          1.0,
          0.0,
          0.0
        ],
        [
          1.0,
          0.0,
          0.0
        ],
        [
          1.0,
          0.0,
          0.0
        ],
        [
          0.0,
          0.8900128489662422,
          0.10998715103375781
        ],
        [
          0.0,
          1.0,
          0.0
        ],
        [
          0.0,
          0.27019066811347076,
          0.7298093318865292
        ],
        [
          0.031332246706603686,
          0.9158721086707378,
          0.052795644622659225
        ],
        [
          0.03307865565516929,
          0.9669213443448301,
          0.0
        ],
        [
          0.6432865731462926,
          0.3567134268537073,
          0.0
        ],
        [
          1.0,
          0.0,
          0.0
        ],
        [
          0.0,
          1.0,
          0.0
        ],
        [
          0.01221768023932948,
          0.9877823197606704,
          0.0
        ],
        [
          0.18994287189749218,
          0.810057128102508,
          0.0
        ],
        [
          0.256170286858486,
          0.7438297131415139,
          0.0
        ],
        [
          0.7860291171363697,
          0.21397088286363028,
          0.0
        ],
        [
          0.0,
          1.0,
          0.0
        ],
        [
          0.0,
          1.0,
          0.0
        ],
        [
          0.0,
          1.0,
          0.0
        ],
        [
          0.0,
          1.0,
          0.0
        ],
        [
          0.0,
          1.0,
          0.0
        ],
        [
          0.0,
          0.0,
          1.0
        ],
        [
          0.0,
          0.10358532589217118,
          0.8964146741078287
        ],
        [
          0.0,
          1.0,
          0.0
        ],
        [
          0.0,
          0.0,
          1.0
        ],
        [
          0.0,
          0.0,
          1.0
        ],
        [
          0.0,
          0.0,
          1.0
        ]
      ]
    },
    {
      "children_left": [
        1,
        -1,
        3,
        -1,
        -1
      ],
      "children_right": [
        2,
        -1,
        4,
        -1,
        -1
      ],
      "feature": [
        0,
        -2,
        0,
        -2,
        -2
      ],
      "threshold": [
        0.9835000038146973,
        -2.0,
        3.5164999961853027,
        -2.0,
        -2.0
      ],
      "values": [
        [
          0.3597280430861321,
          0.32926252282956997,
          0.3110094340843073
        ],
        [
          1.0,
          0.0,
          0.0
        ],
        [
          0.0,
          0.5142541685202356,
          0.4857458314797656
        ],
        [
          0.0,
          1.0,
          0.0
        ],
        [
          0.0,
          0.0,
          1.0
        ]
      ]
    },
    {
      "children_left": [
        1,
        2,
        3,
        4,
        -1,
        -1,
        7,
        -1,
        9,
        -1,
        -1,
        12,
        13,
        -1,
        -1,
        16,
        -1,
        -1,
        19,
        20,
        -1,
        22,
        -1,
        24,
        -1,
        -1,
        27,
        28,
        29,
        30,
        -1,
        -1,
        -1,
        34,
        35,
        -1,
        -1,
        -1,
        39,
        40,
        -1,
        42,
        -1,
        -1,
        45,
        46,
        -1,
        -1,
        49,
        -1,
        51,
        -1,
        -1
      ],
      "children_right": [
        18,
        11,
        6,
        5,
        -1,
        -1,
        8,
        -1,
        10,
        -1,
        -1,
        15,
        14,
        -1,
        -1,
        17,
        -1,
        -1,
        26,
        21,
        -1,
        23,
        -1,
        25,
        -1,
        -1,
        38,
        33,
        32,
        31,
        -1,
        -1,
        -1,
        37,
        36,
        -1,
        -1,
        -1,
        44,
        41,
        -1,
        43,
        -1,
        -1,
        48,
        47,
        -1,
        -1,
        50,
        -1,
        52,
        -1,
        -1
      ],
      "feature": [
        1,
        3,
        3,
        2,
        -2,
        -2,
        0,
        -2,
        2,
        -2,
        -2,
        2,
        0,
        -2,
        -2,
        3,
        -2,
        -2,
        3,
        2,
        -2,
        3,
        -2,
        1,
        -2,
        -2,
        1,
        1,
        2,
        2,
        -2,
        -2,
        -2,
        0,
        3,
        -2,
        -2,
        -2,
        1,
        2,
        -2,
        2,
        -2,
        -2,
        3,
        4,
        -2,
        -2,
        1,
        -2,
        0,
        -2,
        -2
      ],
      "threshold": [
        0.550000011920929,
        0.5212217569351196,
        0.10663538053631783,
        4.666666507720947,
        -2.0,
        -2.0,
        0.9835000038146973,
        -2.0,
        3.0,
        -2.0,
        -2.0,
        0.6166666746139526,
        0.9835000038146973,
        -2.0,
        -2.0,
        0.5694729089736938,
        -2.0,
        -2.0,
        0.4971907138824463,
        2.4833333492279053,
        -2.0,
        0.21104035526514053,
        -2.0,
        0.8499999940395355,
        -2.0,
        -2.0,
        1.4166666269302368,
        0.6500000059604645,
        0.4166666716337204,
        0.3500000089406967,
        -2.0,
        -2.0,
        -2.0,
        3.350000023841858,
        2.3452333211898804,
        -2.0,
        -2.0,
        -2.0,
        1.7166666984558105,
        1.9166666865348816,
        -2.0,
        2.166666626930237,
        -2.0,
        -2.0,
        1.269443690776825,
        3.0,
        -2.0,
        -2.0,
        2.100000023841858,
        -2.0,
        3.5164999961853027,
        -2.0,
        -2.0
      ],
      "values": [
        [
          0.3467342856629759,
          0.35889544600072154,
          0.2943702683363104
        ],
        [
          0.7150228776358784,
          0.18838357547545026,
          0.09659354688867171
        ],
        [
          0.16805116657520824,
          0.45992417551092507,
          0.3720246579138695
        ],
        [
          0.0,
          0.026572045994184033,
          0.9734279540058162
        ],
        [
          0.0,
          0.12360387192851822,
          0.8763961280714817
        ],
        [
          0.0,
          0.0,
          1.0
        ],
        [
          0.2668482004304758,
          0.7146912555832743,
          0.018460543986251337
        ],
        [
          1.0,
          0.0,
          0.0
        ],
        [
          0.0,
          0.97482029779223,
          0.025179702207770008
        ],
        [
          0.0,
          1.0,
          0.0
        ],
        [
          0.0,
          0.514037985136251,
          0.48596201486374896
        ],
        [
          0.9068455712395882,
          0.09315442876041222,
          0.0
        ],
        [
          0.9640869734661612,
          0.03591302653383935,
          0.0
        ],
        [
          1.0,
          0.0,
          0.0
        ],
        [
          0.0,
          1.0,
          0.0
        ],
        [
          0.06005102040816325,
          0.9399489795918368,
          0.0
        ],
        [
          0.3552671294898883,
          0.6447328705101116,
          0.0
        ],
        [
          0.0,
          1.0,
          0.0
        ],
        [
          0.030239494967653546,
          0.505427594835058,
          0.4643329101972905
        ],
        [
          0.0,
          0.1674052334962469,
          0.8325947665037532
        ],
        [
          0.0,
          1.0,
          0.0
        ],
        [
          0.0,
          0.013794154103968588,
          0.9862058458960314
        ],
        [
          0.0,
          0.0,
          1.0
        ],
        [
          0.0,
          0.027433482069079508,
          0.9725665179309206
        ],
        [
          0.0,
          0.4583525080533824,
          0.5416474919466177
        ],
        [
          0.0,
          0.0,
          1.0
        ],
        [
          0.04853762101613257,
          0.7099672467570957,
          0.2414951322267722
        ],
        [
          0.07100804338666973,
          0.9046267870271572,
          0.024365169586172936
        ],
        [
          0.3350174339998579,
          0.6649825660001429,
          0.0
        ],
        [
          0.9635693819074908,
          0.0364306180925092,
          0.0
        ],
        [
          1.0,
          0.0,
          0.0
        ],
        [
          0.8852476630493177,
          0.11475233695068227,
          0.0
        ],
        [
          0.0,
          1.0,
          0.0
        ],
        [
          0.0035658921689480467,
          0.9658447677793529,
          0.03058934005169891
        ],
        [
          0.0036845614683149743,
          0.9963154385316849,
          0.0
        ],
        [
          0.0,
          1.0,
          0.0
        ],
        [
          0.21600293631859058,
          0.7839970636814094,
          0.0
        ],
        [
          0.0,
          0.0502319951583619,
          0.949768004841638
        ],
        [
          0.0,
          0.2894895700583546,
          0.7105104299416473
        ],
        [
          0.0,
          0.5262151554795214,
          0.4737848445204793
        ],
        [
          0.0,
          1.0,
          0.0
        ],
        [
          0.0,
          0.050231995158361915,
          0.9497680048416383
        ],
        [
          0.0,
          0.12360387192851822,
          0.8763961280714818
        ],
        [
          0.0,
          0.0,
          1.0
        ],
        [
          0.0,
          0.10018911197843325,
          0.8998108880215673
        ],
        [
          0.0,
          0.0074988706520102396,
          0.9925011293479898
        ],
        [
          0.0,
          0.040593413759373975,
          0.959406586240626
        ],
        [
          0.0,
          0.0,
          1.0
        ],
        [
          0.0,
          0.28670989636991695,
          0.713290103630083
        ],
        [
          0.0,
          1.0,
          0.0
        ],
        [
          0.0,
          0.11263570566948126,
          0.8873642943305187
        ],
        [
          0.0,
          1.0,
          0.0
        ],
        [
          0.0,
          0.0,
          1.0
        ]
      ]
    },
    {
      "children_left": [
        1,
        2,
        3,
        -1,
        -1,
        6,
        -1,
        -1,
        9,
        10,
        11,
        12,
        13,
        -1,
        -1,
        -1,
        17,
        -1,
        -1,
        20,
        21,
        22,
        -1,
        -1,
        25,
        -1,
        27,
        -1,
        -1,
        30,
        -1,
        -1,
        33,
        34,
        -1,
        36,
        37,
        -1,
        -1,
        -1,
        41,
        -1,
        -1
      ],
      "children_right": [
        8,
        5,
        4,
        -1,
        -1,
        7,
        -1,
        -1,
        32,
        19,
        16,
        15,
        14,
        -1,
        -1,
        -1,
        18,
        -1,
        -1,
        29,
        24,
        23,
        -1,
        -1,
        26,
        -1,
        28,
        -1,
        -1,
        31,
        -1,
        -1,
        40,
        35,
        -1,
        39,
        38,
        -1,
        -1,
        -1,
        42,
        -1,
        -1
      ],
      "feature": [
        3,
        2,
        2,
        -2,
        -2,
        0,
        -2,
        -2,
        2,
        2,
        1,
        0,
        1,
        -2,
        -2,
        -2,
        3,
        -2,
        -2,
        4,
        3,
        0,
        -2,
        -2,
        1,
        -2,
        0,
        -2,
        -2,
        0,
        -2,
        -2,
        2,
        0,
        -2,
        0,
        4,
        -2,
        -2,
        -2,
        0,
        -2,
        -2
      ],
      "threshold": [
        0.4417413920164108,
        2.4666666984558105,
        0.6833333373069763,
        -2.0,
        -2.0,
        3.5,
        -2.0,
        -2.0,
        0.550000011920929,
        0.45000000298023224,
        0.6500000059604645,
        0.9835000038146973,
        0.2500000074505806,
        -2.0,
        -2.0,
        -2.0,
        2.3974292278289795,
        -2.0,
        -2.0,
        3.5,
        0.9999979138374329,
        0.9500000178813934,
        -2.0,
        -2.0,
        0.5166666805744171,
        -2.0,
        1.0835000276565552,
        -2.0,
        -2.0,
        0.9835000038146973,
        -2.0,
        -2.0,
        1.850000023841858,
        0.9835000038146973,
        -2.0,
        3.649999976158142,
        0.5,
        -2.0,
        -2.0,
        -2.0,
        3.5334999561309814,
        -2.0,
        -2.0
      ],
      "values": [
        [
          0.34015485377565235,
          0.3456458837006628,
          0.31419926252369473
        ],
        [
          0.0220620267302577,
          0.2524605641639169,
          0.7254774091058236
        ],
        [
          0.08783800592054548,
          0.9121619940794548,
          0.0
        ],
        [
          1.0,
          0.0,
          0.0
        ],
        [
          0.0,
          1.0,
          0.0
        ],
        [
          0.0,
          0.03118904893978706,
          0.9688109510602131
        ],
        [
          0.0,
          1.0,
          0.0
        ],
        [
          0.0,
          0.0,
          1.0
        ],
        [
          0.45183348707116233,
          0.3783621484015444,
          0.1698043645273055
        ],
        [
          0.8898893394735035,
          0.1101106605264964,
          0.0
        ],
        [
          0.957055927372155,
          0.04294407262784471,
          0.0
        ],
        [
          0.986438095238095,
          0.013561904761904726,
          0.0
        ],
        [
          1.0,
          0.0,
          0.0
        ],
        [
          1.0,
          0.0,
          0.0
        ],
        [
          1.0,
          0.0,
          0.0
        ],
        [
          0.0,
          1.0,
          0.0
        ],
        [
          0.08102154608659737,
          0.9189784539134026,
          0.0
        ],
        [
          0.0,
          1.0,
          0.0
        ],
        [
          0.35526712948988837,
          0.6447328705101117,
          0.0
        ],
        [
          0.7446740689581904,
          0.25532593104181134,
          0.0
        ],
        [
          0.850711869954179,
          0.14928813004582175,
          0.0
        ],
        [
          0.9734996360749025,
          0.026500363925097626,
          0.0
        ],
        [
          1.0,
          0.0,
          0.0
        ],
        [
          0.8016221905764349,
          0.19837780942356506,
          0.0
        ],
        [
          0.27423112767940355,
          0.7257688723205964,
          0.0
        ],
        [
          0.7256473489519113,
          0.27435265104808876,
          0.0
        ],
        [
          0.0,
          1.0,
          0.0
        ],
        [
          0.0,
          1.0,
          0.0
        ],
        [
          0.0,
          1.0,
          0.0
        ],
        [
          0.4871930725036013,
          0.512806927496399,
          0.0
        ],
        [
          1.0,
          0.0,
          0.0
        ],
        [
          0.0,
          1.0,
          0.0
        ],
        [
          0.049530816634085144,
          0.6247195234463231,
          0.32574965991958954
        ],
        [
          0.07279186364835316,
          0.8751721856311361,
          0.0520359507205095
        ],
        [
          1.0,
          0.0,
          0.0
        ],
        [
          0.0,
          0.9438788890213363,
          0.056121110978662486
        ],
        [
          0.0,
          1.0,
          0.0
        ],
        [
          0.0,
          1.0,
          0.0
        ],
        [
          0.0,
          1.0,
          0.0
        ],
        [
          0.0,
          0.0,
          1.0
        ],
        [
          0.0,
          0.0914191574488116,
          0.9085808425511892
        ],
        [
          0.0,
          1.0,
          0.0
        ],
        [
          0.0,
          0.0,
          1.0
        ]
      ]
    },
    {
      "children_left": [
        1,
        2,
        -1,
        4,
        5,
        6,
        -1,
        -1,
        -1,
        10,
        11,
        -1,
        -1,
        -1,
        15,
        16,
        17,
        18,
        -1,
        -1,
        21,
        -1,
        -1,
        24,
        -1,
        -1,
        27,
        28,
        -1,
        30,
        31,
        -1,
        -1,
        34,
        -1,
        -1,
        37,
        -1,
        -1
      ],
      "children_right": [
        14,
        3,
        -1,
        9,
        8,
        7,
        -1,
        -1,
        -1,
        13,
        12,
        -1,
        -1,
        -1,
        26,
        23,
        20,
        19,
        -1,
        -1,
        22,
        -1,
        -1,
        25,
        -1,
        -1,
        36,
        29,
        -1,
        33,
        32,
        -1,
        -1,
        35,
        -1,
        -1,
        38,
        -1,
        -1
      ],
      "feature": [
        1,
        0,
        -2,
        4,
        3,
        0,
        -2,
        -2,
        -2,
        0,
        0,
        -2,
        -2,
        -2,
        2,
        0,
        3,
        0,
        -2,
        -2,
        0,
        -2,
        -2,
        2,
        -2,
        -2,
        1,
        2,
        -2,
        3,
        1,
        -2,
        -2,
        3,
        -2,
        -2,
        0,
        -2,
        -2
      ],
      "threshold": [
        0.550000011920929,
        0.9835000038146973,
        -2.0,
        5.5,
        0.12906227260828018,
        3.583000063896179,
        -2.0,
        -2.0,
        -2.0,
        4.0,
        1.0835000276565552,
        -2.0,
        -2.0,
        -2.0,
        1.8833333253860474,
        3.5,
        1.6348454356193542,
        1.0164999961853027,
        -2.0,
        -2.0,
        0.9835000038146973,
        -2.0,
        -2.0,
        1.3166666626930237,
        -2.0,
        -2.0,
        1.2833333015441895,
        2.4833333492279053,
        -2.0,
        0.255720391869545,
        0.6166666746139526,
        -2.0,
        -2.0,
        0.32952211797237396,
        -2.0,
        -2.0,
        3.616499900817871,
        -2.0,
        -2.0
      ],
      "values": [
        [
          0.34304092551031234,
          0.3349314683936704,
          0.32202760609602604
        ],
        [
          0.721357250466866,
          0.2038358290563918,
          0.07480692047674362
        ],
        [
          1.0,
          0.0,
          0.0
        ],
        [
          0.0,
          0.7315310712298015,
          0.26846892877019873
        ],
        [
          0.0,
          0.7788474291524825,
          0.2211525708475182
        ],
        [
          0.0,
          0.11067158540379575,
          0.8893284145962044
        ],
        [
          0.0,
          1.0,
          0.0
        ],
        [
          0.0,
          0.0,
          1.0
        ],
        [
          0.0,
          1.0,
          0.0
        ],
        [
          0.0,
          0.5077116118575835,
          0.4922883881424164
        ],
        [
          0.0,
          1.0,
          0.0
        ],
        [
          0.0,
          1.0,
          0.0
        ],
        [
          0.0,
          1.0,
          0.0
        ],
        [
          0.0,
          0.0,
          1.0
        ],
        [
          0.033145042522819426,
          0.44231779097147433,
          0.5245371665057083
        ],
        [
          0.06899341503083517,
          0.8289639769468231,
          0.10204260802234034
        ],
        [
          0.07683372913594959,
          0.9231662708640493,
          0.0
        ],
        [
          0.009546984629111396,
          0.9904530153708884,
          0.0
        ],
        [
          0.7677756033920417,
          0.2322243966079582,
          0.0
        ],
        [
          0.0,
          1.0,
          0.0
        ],
        [
          0.4113724963032667,
          0.5886275036967338,
          0.0
        ],
        [
          1.0,
          0.0,
          0.0
        ],
        [
          0.0,
          1.0,
          0.0
        ],
        [
          0.0,
          0.0,
          1.0
        ],
        [
          0.0,
          0.0,
          1.0
        ],
        [
          0.0,
          0.0,
          1.0
        ],
        [
          0.0,
          0.08482863933499794,
          0.915171360665002
        ],
        [
          0.0,
          0.15537736732083263,
          0.8446226326791683
        ],
        [
          0.0,
          1.0,
          0.0
        ],
        [
          0.0,
          0.011366852614376104,
          0.9886331473856238
        ],
        [
          0.0,
          0.0,
          1.0
        ],
        [
          0.0,
          0.0,
          1.0
        ],
        [
          0.0,
          0.0,
          1.0
        ],
        [
          0.0,
          0.04587494012307011,
          0.9541250598769299
        ],
        [
          0.0,
          0.1498736005778259,
          0.850126399422174
        ],
        [
          0.0,
          0.0,
          1.0
        ],
        [
          0.0,
          0.01026389335443821,
          0.9897361066455618
        ],
        [
          0.0,
          0.20913824962203925,
          0.7908617503779606
        ],
        [
          0.0,
          0.0,
          1.0
        ]
      ]
    },
    {
      "children_left": [
        1,
        2,
        3,
        -1,
        -1,
        6,
        -1,
        -1,
        9,
        10,
        11,
        12,
        -1,
        -1,
        15,
        -1,
        -1,
        18,
        19,
        -1,
        -1,
        22,
        -1,
        -1,
        25,
        26,
        27,
        -1,
        29,
        -1,
        -1,
        32,
        33,
        -1,
        -1,
        36,
        37,
        38,
        -1,
        -1,
        -1,
        42,
        -1,
        -1,
        45,
        46,
        -1,
        -1,
        49,
        -1,
        -1
      ],
      "children_right": [
        8,
        5,
        4,
        -1,
        -1,
        7,
        -1,
        -1,
        24,
        17,
        14,
        13,
        -1,
        -1,
        16,
        -1,
        -1,
        21,
        20,
        -1,
        -1,
        23,
        -1,
        -1,
        44,
        31,
        28,
        -1,
        30,
        -1,
        -1,
        35,
        34,
        -1,
        -1,
        41,
        40,
        39,
        -1,
        -1,
        -1,
        43,
        -1,
        -1,
        48,
        47,
        -1,
        -1,
        50,
        -1,
        -1
      ],
      "feature": [
        3,
        0,
        2,
        -2,
        -2,
        2,
        -2,
        -2,
        1,
        3,
        1,
        3,
        -2,
        -2,
        0,
        -2,
        -2,
        2,
        0,
        -2,
        -2,
        3,
        -2,
        -2,
        1,
        3,
        0,
        -2,
        0,
        -2,
        -2,
        2,
        1,
        -2,
        -2,
        1,
        3,
        4,
        -2,
        -2,
        -2,
        1,
        -2,
        -2,
        2,
        0,
        -2,
        -2,
        0,
        -2,
        -2
      ],
      "threshold": [
        0.300431028008461,
        3.5334999561309814,
        0.8999999761581421,
        -2.0,
        -2.0,
        3.433333396911621,
        -2.0,
        -2.0,
        0.550000011920929,
        0.5857834219932556,
        0.3166666775941849,
        0.41052569448947906,
        -2.0,
        -2.0,
        1.1165000200271606,
        -2.0,
        -2.0,
        0.5833333432674408,
        0.9835000038146973,
        -2.0,
        -2.0,
        0.6339703798294067,
        -2.0,
        -2.0,
        1.3166666626930237,
        0.5092383325099945,
        3.5164999961853027,
        -2.0,
        3.7170000076293945,
        -2.0,
        -2.0,
        0.38333334028720856,
        0.6500000059604645,
        -2.0,
        -2.0,
        0.5833333432674408,
        1.0312480926513672,
        4.5,
        -2.0,
        -2.0,
        -2.0,
        0.6166666746139526,
        -2.0,
        -2.0,
        1.850000023841858,
        3.5164999961853027,
        -2.0,
        -2.0,
        3.4665000438690186,
        -2.0,
        -2.0
      ],
      "values": [
        [
          0.31192315273486015,
          0.3216574326830255,
          0.36641941458212296
        ],
        [
          0.012339452345621369,
          0.10776839455124461,
          0.8798921531031333
        ],
        [
          0.10273643783005278,
          0.8972635621699472,
          0.0
        ],
        [
          0.6879018118059615,
          0.31209818819403856,
          0.0
        ],
        [
          0.0,
          1.0,
          0.0
        ],
        [
          0.0,
          0.0,
          1.0
        ],
        [
          0.0,
          0.0,
          1.0
        ],
        [
          0.0,
          0.0,
          1.0
        ],
        [
          0.38546812238133965,
          0.37416517191142323,
          0.24036670570724497
        ],
        [
          0.8307716685152922,
          0.16922833148470864,
          0.0
        ],
        [
          0.40262381775653455,
          0.5973761822434667,
          0.0
        ],
        [
          0.9754143646408839,
          0.024585635359116027,
          0.0
        ],
        [
          0.9168094718803551,
          0.0831905281196448,
          0.0
        ],
        [
          1.0,
          0.0,
          0.0
        ],
        [
          0.018185189190859506,
          0.9818148108091406,
          0.0
        ],
        [
          0.1967240514791911,
          0.8032759485208089,
          0.0
        ],
        [
          0.0,
          1.0,
          0.0
        ],
        [
          0.9097922180302954,
          0.09020778196970534,
          0.0
        ],
        [
          0.9586244923112415,
          0.041375507688759194,
          0.0
        ],
        [
          1.0,
          0.0,
          0.0
        ],
        [
          0.0,
          1.0,
          0.0
        ],
        [
          0.03786879444033331,
          0.9621312055596667,
          0.0
        ],
        [
          0.3059526904081103,
          0.6940473095918898,
          0.0
        ],
        [
          0.0,
          1.0,
          0.0
        ],
        [
          0.026003912784511,
          0.5395971789116494,
          0.4343989083038415
        ],
        [
          0.04918659740353625,
          0.8397770761813781,
          0.11103632641508498
        ],
        [
          0.0,
          0.540045721878115,
          0.45995427812188644
        ],
        [
          0.0,
          1.0,
          0.0
        ],
        [
          0.0,
          0.0,
          1.0
        ],
        [
          0.0,
          0.0,
          1.0
        ],
        [
          0.0,
          0.0,
          1.0
        ],
        [
          0.064839271786813,
          0.9351607282131866,
          0.0
        ],
        [
          0.842590643028593,
          0.15740935697140687,
          0.0
        ],
        [
          1.0,
          0.0,
          0.0
        ],
        [
          0.4857614527445316,
          0.5142385472554684,
          0.0
        ],
        [
          0.0073298624950179445,
          0.9926701375049819,
          0.0
        ],
        [
          0.13195067264573987,
          0.8680493273542599,
          0.0
        ],
        [
          0.0,
          1.0,
          0.0
        ],
        [
          0.0,
          1.0,
          0.0
        ],
        [
          0.0,
          1.0,
          0.0
        ],
        [
          0.2686601232595298,
          0.7313398767404702,
          0.0
        ],
        [
          0.0,
          1.0,
          0.0
        ],
        [
          0.0,
          1.0,
          0.0
        ],
        [
          0.0,
          1.0,
          0.0
        ],
        [
          0.0,
          0.20288674193923864,
          0.7971132580607618
        ],
        [
          0.0,
          0.6036770152872247,
          0.3963229847127756
        ],
        [
          0.0,
          1.0,
          0.0
        ],
        [
          0.0,
          0.0,
          1.0
        ],
        [
          0.0,
          0.019212073515115037,
          0.980787926484885
        ],
        [
          0.0,
          1.0,
          0.0
        ],
        [
          0.0,
          0.0,
          1.0
        ]
      ]
    },
    {
      "children_left": [
        1,
        2,
        3,
        -1,
        -1,
        6,
        -1,
        -1,
        9,
        10,
        11,
        12,
        -1,
        -1,
        15,
        16,
        -1,
        -1,
        19,
        -1,
        -1,
        -1,
        23,
        -1,
        -1
      ],
      "children_right": [
        8,
        5,
        4,
        -1,
        -1,
        7,
        -1,
        -1,
        22,
        21,
        14,
        13,
        -1,
        -1,
        18,
        17,
        -1,
        -1,
        20,
        -1,
        -1,
        -1,
        24,
        -1,
        -1
      ],
      "feature": [
        1,
        0,
        0,
        -2,
        -2,
        2,
        -2,
        -2,
        2,
        0,
        1,
        0,
        -2,
        -2,
        2,
        3,
        -2,
        -2,
        2,
        -2,
        -2,
        -2,
        0,
        -2,
        -2
      ],
      "threshold": [
        0.550000011920929,
        0.9835000038146973,
        0.5665000081062317,
        -2.0,
        -2.0,
        3.216666579246521,
        -2.0,
        -2.0,
        1.850000023841858,
        3.5164999961853027,
        0.5833333432674408,
        0.9835000038146973,
        -2.0,
        -2.0,
        0.38333334028720856,
        2.2409026622772217,
        -2.0,
        -2.0,
        0.4166666716337204,
        -2.0,
        -2.0,
        -2.0,
        3.5164999961853027,
        -2.0,
        -2.0
      ],
      "values": [
        [
          0.3316602440535497,
          0.3212498468409574,
          0.3470899091055032
        ],
        [
          0.7048681454332295,
          0.18757250318069,
          0.10755935138608066
        ],
        [
          1.0,
          0.0,
          0.0
        ],
        [
          1.0,
          0.0,
          0.0
        ],
        [
          1.0,
          0.0,
          0.0
        ],
        [
          0.0,
          0.6355549232597443,
          0.3644450767402557
        ],
        [
          0.0,
          1.0,
          0.0
        ],
        [
          0.0,
          0.0,
          1.0
        ],
        [
          0.023504110585107357,
          0.4316266454092425,
          0.5448692440056506
        ],
        [
          0.05357177410667937,
          0.880777445920935,
          0.06565077997238504
        ],
        [
          0.05733592211389238,
          0.9426640778861068,
          0.0
        ],
        [
          0.41879984092764294,
          0.581200159072357,
          0.0
        ],
        [
          1.0,
          0.0,
          0.0
        ],
        [
          0.0,
          1.0,
          0.0
        ],
        [
          0.012282358588520118,
          0.9877176414114797,
          0.0
        ],
        [
          0.4449064449064449,
          0.5550935550935551,
          0.0
        ],
        [
          0.5694242864054185,
          0.43057571359458147,
          0.0
        ],
        [
          0.2686601232595298,
          0.7313398767404702,
          0.0
        ],
        [
          0.0,
          1.0,
          0.0
        ],
        [
          0.0,
          1.0,
          0.0
        ],
        [
          0.0,
          1.0,
          0.0
        ],
        [
          0.0,
          0.0,
          1.0
        ],
        [
          0.0,
          0.08052220801116211,
          0.9194777919888381
        ],
        [
          0.0,
          1.0,
          0.0
        ],
        [
          0.0,
          0.0,
          1.0
        ]
      ]
    },
    {
      "children_left": [
        1,
        2,
        3,
        4,
        -1,
        -1,
        7,
        8,
        -1,
        -1,
        11,
        -1,
        -1,
        14,
        15,
        -1,
        -1,
        18,
        19,
        -1,
        -1,
        22,
        -1,
        -1,
        25,
        26,
        27,
        -1,
        -1,
        30,
        -1,
        32,
        -1,
        -1,
        35,
        -1,
        -1
      ],
      "children_right": [
        24,
        13,
        6,
        5,
        -1,
        -1,
        10,
        9,
        -1,
        -1,
        12,
        -1,
        -1,
        17,
        16,
        -1,
        -1,
        21,
        20,
        -1,
        -1,
        23,
        -1,
        -1,
        34,
        29,
        28,
        -1,
        -1,
        31,
        -1,
        33,
        -1,
        -1,
        36,
        -1,
        -1
      ],
      "feature": [
        1,
        2,
        1,
        0,
        -2,
        -2,
        2,
        0,
        -2,
        -2,
        2,
        -2,
        -2,
        3,
        3,
        -2,
        -2,
        1,
        2,
        -2,
        -2,
        3,
        -2,
        -2,
        0,
        1,
        0,
        -2,
        -2,
        0,
        -2,
        0,
        -2,
        -2,
        2,
        -2,
        -2
      ],
      "threshold": [
        0.550000011920929,
        0.6166666746139526,
        0.45000000298023224,
        0.9835000038146973,
        -2.0,
        -2.0,
        0.4833333343267441,
        0.9500000178813934,
        -2.0,
        -2.0,
        0.5166666805744171,
        -2.0,
        -2.0,
        0.10658660531044006,
        0.08758018165826797,
        -2.0,
        -2.0,
        0.3500000089406967,
        0.6833333373069763,
        -2.0,
        -2.0,
        0.14642851799726486,
        -2.0,
        -2.0,
        3.5164999961853027,
        0.6500000059604645,
        0.9835000038146973,
        -2.0,
        -2.0,
        1.0835000276565552,
        -2.0,
        1.183500051498413,
        -2.0,
        -2.0,
        1.5,
        -2.0,
        -2.0
      ],
      "values": [
        [
          0.331074796927214,
          0.3305686914275677,
          0.3383565116452268
        ],
        [
          0.6971721141455745,
          0.1994090975519614,
          0.10341878830246477
        ],
        [
          0.9436661321630521,
          0.05633386783694814,
          0.0
        ],
        [
          0.9873651334469051,
          0.012634866553094804,
          0.0
        ],
        [
          1.0,
          0.0,
          0.0
        ],
        [
          0.0,
          1.0,
          0.0
        ],
        [
          0.8093411970061626,
          0.19065880299383814,
          0.0
        ],
        [
          0.9869579021924076,
          0.013042097807592438,
          0.0
        ],
        [
          1.0,
          0.0,
          0.0
        ],
        [
          0.7860291171363696,
          0.21397088286363028,
          0.0
        ],
        [
          0.04142761606420047,
          0.9585723839357995,
          0.0
        ],
        [
          0.12107807838699722,
          0.8789219216130026,
          0.0
        ],
        [
          0.0,
          1.0,
          0.0
        ],
        [
          0.059318142833071776,
          0.5696456826186989,
          0.37103617454823
        ],
        [
          0.0,
          0.03017230933281633,
          0.9698276906671838
        ],
        [
          0.0,
          0.0,
          1.0
        ],
        [
          0.0,
          0.1312737241670181,
          0.8687262758329818
        ],
        [
          0.09440282377740171,
          0.8887259888406936,
          0.016871187381905125
        ],
        [
          0.3169516628517571,
          0.683048337148243,
          0.0
        ],
        [
          0.9296998420221169,
          0.07030015797788308,
          0.0
        ],
        [
          0.0,
          1.0,
          0.0
        ],
        [
          0.0,
          0.9759722363988977,
          0.024027763601102443
        ],
        [
          0.0,
          0.6556465769455823,
          0.34435342305441785
        ],
        [
          0.0,
          1.0,
          0.0
        ],
        [
          0.030538879039649393,
          0.4382399773978277,
          0.5312211435625228
        ],
        [
          0.06514559822883663,
          0.9348544017711626,
          0.0
        ],
        [
          0.32147395171537524,
          0.6785260482846261,
          0.0
        ],
        [
          1.0,
          0.0,
          0.0
        ],
        [
          0.0,
          1.0,
          0.0
        ],
        [
          0.011664841454289566,
          0.9883351585457103,
          0.0
        ],
        [
          0.6381133098400651,
          0.3618866901599349,
          0.0
        ],
        [
          0.0,
          1.0,
          0.0
        ],
        [
          0.0,
          1.0,
          0.0
        ],
        [
          0.0,
          1.0,
          0.0
        ],
        [
          0.0,
          0.0,
          1.0
        ],
        [
          0.0,
          0.0,
          1.0
        ],
        [
          0.0,
          0.0,
          1.0
        ]
      ]
    },
    {
      "children_left": [
        1,
        2,
        3,
        4,
        5,
        -1,
        -1,
        8,
        9,
        -1,
        -1,
        -1,
        13,
        -1,
        15,
        -1,
        -1,
        18,
        -1,
        -1,
        21,
        22,
        23,
        -1,
        -1,
        26,
        -1,
        -1,
        29,
        30,
        -1,
        -1,
        33,
        -1,
        -1
      ],
      "children_right": [
        20,
        17,
        12,
        7,
        6,
        -1,
        -1,
        11,
        10,
        -1,
        -1,
        -1,
        14,
        -1,
        16,
        -1,
        -1,
        19,
        -1,
        -1,
        28,
        25,
        24,
        -1,
        -1,
        27,
        -1,
        -1,
        32,
        31,
        -1,
        -1,
        34,
        -1,
        -1
      ],
      "feature": [
        2,
        1,
        1,
        2,
        2,
        -2,
        -2,
        4,
        0,
        -2,
        -2,
        -2,
        3,
        -2,
        3,
        -2,
        -2,
        0,
        -2,
        -2,
        3,
        0,
        1,
        -2,
        -2,
        4,
        -2,
        -2,
        0,
        0,
        -2,
        -2,
        4,
        -2,
        -2
      ],
      "threshold": [
        0.550000011920929,
        0.550000011920929,
        0.4833333343267441,
        0.5166666805744171,
        0.21666666865348816,
        -2.0,
        -2.0,
        4.5,
        0.9500000178813934,
        -2.0,
        -2.0,
        -2.0,
        1.0690454244613647,
        -2.0,
        1.148349106311798,
        -2.0,
        -2.0,
        0.9835000038146973,
        -2.0,
        -2.0,
        0.299723282456398,
        3.5334999561309814,
        0.18333333730697632,
        -2.0,
        -2.0,
        0.5,
        -2.0,
        -2.0,
        3.5164999961853027,
        0.9835000038146973,
        -2.0,
        -2.0,
        0.5,
        -2.0,
        -2.0
      ],
      "values": [
        [
          0.35770406938251437,
          0.32713119006920616,
          0.3151647405482895
        ],
        [
          0.910947862637528,
          0.08905213736247282,
          0.0
        ],
        [
          0.9826527065351218,
          0.017347293464878195,
          0.0
        ],
        [
          0.996964305002075,
          0.003035694997925033,
          0.0
        ],
        [
          1.0,
          0.0,
          0.0
        ],
        [
          1.0,
          0.0,
          0.0
        ],
        [
          1.0,
          0.0,
          0.0
        ],
        [
          0.9615088899567515,
          0.03849111004324845,
          0.0
        ],
        [
          0.9502546267544405,
          0.049745373245559554,
          0.0
        ],
        [
          1.0,
          0.0,
          0.0
        ],
        [
          0.8372116654811502,
          0.1627883345188497,
          0.0
        ],
        [
          1.0,
          0.0,
          0.0
        ],
        [
          0.8967670036503407,
          0.10323299634965953,
          0.0
        ],
        [
          0.0,
          1.0,
          0.0
        ],
        [
          0.9866378069988865,
          0.013362193001113527,
          0.0
        ],
        [
          0.8686346863468634,
          0.1313653136531365,
          0.0
        ],
        [
          1.0,
          0.0,
          0.0
        ],
        [
          0.3972140438258605,
          0.6027859561741403,
          0.0
        ],
        [
          1.0,
          0.0,
          0.0
        ],
        [
          0.0,
          1.0,
          0.0
        ],
        [
          0.028913122121988613,
          0.46862077967993,
          0.502466098198083
        ],
        [
          0.013671828805656412,
          0.12870917509012397,
          0.8576189961042183
        ],
        [
          0.09602284315725064,
          0.9039771568427494,
          0.0
        ],
        [
          0.7461172741679872,
          0.25388272583201266,
          0.0
        ],
        [
          0.0,
          1.0,
          0.0
        ],
        [
          0.0,
          0.0,
          1.0
        ],
        [
          0.0,
          0.0,
          1.0
        ],
        [
          0.0,
          0.0,
          1.0
        ],
        [
          0.03518983781198949,
          0.6086042087407684,
          0.35620595344724193
        ],
        [
          0.054660085784290935,
          0.9453399142157103,
          0.0
        ],
        [
          1.0,
          0.0,
          0.0
        ],
        [
          0.0,
          1.0,
          0.0
        ],
        [
          0.0,
          0.0,
          1.0
        ],
        [
          0.0,
          0.0,
          1.0
        ],
        [
          0.0,
          0.0,
          1.0
        ]
      ]
    },
    {
      "children_left": [
        1,
        -1,
        3,
        4,
        5,
        -1,
        -1,
        8,
        -1,
        -1,
        11,
        -1,
        13,
        -1,
        -1
      ],
      "children_right": [
        2,
        -1,
        10,
        7,
        6,
        -1,
        -1,
        9,
        -1,
        -1,
        12,
        -1,
        14,
        -1,
        -1
      ],
      "feature": [
        0,
        -2,
        2,
        1,
        2,
        -2,
        -2,
        0,
        -2,
        -2,
        0,
        -2,
        3,
        -2,
        -2
      ],
      "threshold": [
        0.9835000038146973,
        -2.0,
        1.850000023841858,
        1.949999988079071,
        0.4166666716337204,
        -2.0,
        -2.0,
        3.416499972343445,
        -2.0,
        -2.0,
        3.5164999961853027,
        -2.0,
        0.03415114805102348,
        -2.0,
        -2.0
      ],
      "values": [
        [
          0.3390785131359495,
          0.3279634164604718,
          0.3329580704035869
        ],
        [
          1.0,
          0.0,
          0.0
        ],
        [
          0.0,
          0.4962214468417372,
          0.503778553158273
        ],
        [
          0.0,
          0.9439556656020154,
          0.0560443343979839
        ],
        [
          0.0,
          1.0,
          0.0
        ],
        [
          0.0,
          1.0,
          0.0
        ],
        [
          0.0,
          1.0,
          0.0
        ],
        [
          0.0,
          0.11519111779332675,
          0.8848088822066732
        ],
        [
          0.0,
          1.0,
          0.0
        ],
        [
          0.0,
          0.0,
          1.0
        ],
        [
          0.0,
          0.10325971646253237,
          0.8967402835374668
        ],
        [
          0.0,
          1.0,
          0.0
        ],
        [
          0.0,
          0.0,
          1.0
        ],
        [
          0.0,
          0.0,
          1.0
        ],
        [
          0.0,
          0.0,
          1.0
        ]
      ]
    },
    {
      "children_left": [
        1,
        2,
        3,
        4,
        -1,
        -1,
        -1,
        8,
        -1,
        -1,
        11,
        12,
        13,
        -1,
        15,
        -1,
        -1,
        -1,
        19,
        -1,
        -1
      ],
      "children_right": [
        10,
        7,
        6,
        5,
        -1,
        -1,
        -1,
        9,
        -1,
        -1,
        18,
        17,
        14,
        -1,
        16,
        -1,
        -1,
        -1,
        20,
        -1,
        -1
      ],
      "feature": [
        2,
        1,
        0,
        0,
        -2,
        -2,
        -2,
        0,
        -2,
        -2,
        0,
        2,
        1,
        -2,
        3,
        -2,
        -2,
        -2,
        4,
        -2,
        -2
      ],
      "threshold": [
        0.6166666746139526,
        0.550000011920929,
        0.9835000038146973,
        0.5164999961853027,
        -2.0,
        -2.0,
        -2.0,
        0.9835000038146973,
        -2.0,
        -2.0,
        3.5164999961853027,
        0.6833333373069763,
        0.3500000089406967,
        -2.0,
        0.6407884955406189,
        -2.0,
        -2.0,
        -2.0,
        0.5,
        -2.0,
        -2.0
      ],
      "values": [
        [
          0.34121006370895673,
          0.3382258816037023,
          0.3205640546873492
        ],
        [
          0.86372928489256,
          0.13627071510744096,
          0.0
        ],
        [
          0.9648099214997975,
          0.035190078500202455,
          0.0
        ],
        [
          1.0,
          0.0,
          0.0
        ],
        [
          1.0,
          0.0,
          0.0
        ],
        [
          1.0,
          0.0,
          0.0
        ],
        [
          0.0,
          1.0,
          0.0
        ],
        [
          0.2519116645588097,
          0.7480883354411918,
          0.0
        ],
        [
          1.0,
          0.0,
          0.0
        ],
        [
          0.0,
          1.0,
          0.0
        ],
        [
          0.009282180040524201,
          0.4665169535745314,
          0.5242008663849458
        ],
        [
          0.01950861063995531,
          0.9804913893600448,
          0.0
        ],
        [
          0.18395415472779367,
          0.8160458452722062,
          0.0
        ],
        [
          0.9084126575765371,
          0.09158734242346281,
          0.0
        ],
        [
          0.0,
          1.0,
          0.0
        ],
        [
          0.0,
          1.0,
          0.0
        ],
        [
          0.0,
          1.0,
          0.0
        ],
        [
          0.0,
          1.0,
          0.0
        ],
        [
          0.0,
          0.0,
          1.0
        ],
        [
          0.0,
          0.0,
          1.0
        ],
        [
          0.0,
          0.0,
          1.0
        ]
      ]
    },
    {
      "children_left": [
        1,
        2,
        3,
        -1,
        -1,
        -1,
        7,
        8,
        9,
        -1,
        11,
        -1,
        -1,
        -1,
        15,
        16,
        17,
        18,
        19,
        -1,
        -1,
        -1,
        23,
        -1,
        -1,
        26,
        -1,
        -1,
        29,
        30,
        -1,
        32,
        -1,
        -1,
        35,
        36,
        -1,
        -1,
        39,
        -1,
        41,
        -1,
        -1
      ],
      "children_right": [
        6,
        5,
        4,
        -1,
        -1,
        -1,
        14,
        13,
        10,
        -1,
        12,
        -1,
        -1,
        -1,
        28,
        25,
        22,
        21,
        20,
        -1,
        -1,
        -1,
        24,
        -1,
        -1,
        27,
        -1,
        -1,
        34,
        31,
        -1,
        33,
        -1,
        -1,
        38,
        37,
        -1,
        -1,
        40,
        -1,
        42,
        -1,
        -1
      ],
      "feature": [
        2,
        0,
        4,
        -2,
        -2,
        -2,
        3,
        0,
        0,
        -2,
        2,
        -2,
        -2,
        -2,
        1,
        0,
        2,
        1,
        0,
        -2,
        -2,
        -2,
        2,
        -2,
        -2,
        2,
        -2,
        -2,
        1,
        0,
        -2,
        3,
        -2,
        -2,
        2,
        0,
        -2,
        -2,
        4,
        -2,
        1,
        -2,
        -2
      ],
      "threshold": [
        0.550000011920929,
        0.9835000038146973,
        0.5,
        -2.0,
        -2.0,
        -2.0,
        0.30724403262138367,
        3.5334999561309814,
        1.1669999957084656,
        -2.0,
        1.149999976158142,
        -2.0,
        -2.0,
        -2.0,
        1.350000023841858,
        3.5164999961853027,
        0.6833333373069763,
        0.4166666716337204,
        0.9835000038146973,
        -2.0,
        -2.0,
        -2.0,
        0.7166666686534882,
        -2.0,
        -2.0,
        2.683333396911621,
        -2.0,
        -2.0,
        1.6166666746139526,
        3.5169999599456787,
        -2.0,
        0.48698677122592926,
        -2.0,
        -2.0,
        1.6166666746139526,
        3.5,
        -2.0,
        -2.0,
        0.5,
        -2.0,
        1.699999988079071,
        -2.0,
        -2.0
      ],
      "values": [
        [
          0.3332770396383585,
          0.3425814953678239,
          0.3241414649938281
        ],
        [
          0.9003494723984664,
          0.09965052760153348,
          0.0
        ],
        [
          1.0,
          0.0,
          0.0
        ],
        [
          1.0,
          0.0,
          0.0
        ],
        [
          1.0,
          0.0,
          0.0
        ],
        [
          0.0,
          1.0,
          0.0
        ],
        [
          0.030086284070749394,
          0.47246688462811753,
          0.49744683130113604
        ],
        [
          0.01561247800267677,
          0.14733297848031562,
          0.8370545435170077
        ],
        [
          0.0958141352306214,
          0.9041858647693786,
          0.0
        ],
        [
          0.7336990400199476,
          0.2663009599800523,
          0.0
        ],
        [
          0.0,
          1.0,
          0.0
        ],
        [
          0.0,
          1.0,
          0.0
        ],
        [
          0.0,
          1.0,
          0.0
        ],
        [
          0.0,
          0.0,
          1.0
        ],
        [
          0.03661388104434789,
          0.6191002643903558,
          0.34428585456529515
        ],
        [
          0.057688352265965144,
          0.856661285982342,
          0.08565036175169244
        ],
        [
          0.06309222408233604,
          0.9369077759176633,
          0.0
        ],
        [
          0.27379439921266935,
          0.7262056007873317,
          0.0
        ],
        [
          0.877501863852727,
          0.12249813614727302,
          0.0
        ],
        [
          1.0,
          0.0,
          0.0
        ],
        [
          0.0,
          1.0,
          0.0
        ],
        [
          0.0,
          1.0,
          0.0
        ],
        [
          0.0,
          1.0,
          0.0
        ],
        [
          0.0,
          1.0,
          0.0
        ],
        [
          0.0,
          1.0,
          0.0
        ],
        [
          0.0,
          0.0,
          1.0
        ],
        [
          0.0,
          0.0,
          1.0
        ],
        [
          0.0,
          0.0,
          1.0
        ],
        [
          0.0,
          0.2063719499346791,
          0.7936280500653201
        ],
        [
          0.0,
          0.4704876732049672,
          0.5295123267950336
        ],
        [
          0.0,
          1.0,
          0.0
        ],
        [
          0.0,
          0.0,
          1.0
        ],
        [
          0.0,
          0.0,
          1.0
        ],
        [
          0.0,
          0.0,
          1.0
        ],
        [
          0.0,
          0.08646009926673348,
          0.9135399007332671
        ],
        [
          0.0,
          0.4111172261970282,
          0.5888827738029719
        ],
        [
          0.0,
          1.0,
          0.0
        ],
        [
          0.0,
          0.0,
          1.0
        ],
        [
          0.0,
          0.003195134157139008,
          0.9968048658428609
        ],
        [
          0.0,
          0.03405826836274107,
          0.965941731637259
        ],
        [
          0.0,
          0.0,
          1.0
        ],
        [
          0.0,
          0.0,
          1.0
        ],
        [
          0.0,
          0.0,
          1.0
        ]
      ]
    },
    {
      "children_left": [
        1,
        2,
        3,
        4,
        5,
        -1,
        7,
        -1,
        -1,
        -1,
        -1,
        12,
        13,
        -1,
        -1,
        -1,
        17,
        18,
        19,
        20,
        -1,
        -1,
        23,
        -1,
        -1,
        26,
        -1,
        -1,
        29,
        30,
        -1,
        -1,
        33,
        -1,
        35,
        36,
        -1,
        -1,
        39,
        -1,
        -1
      ],
      "children_right": [
        16,
        11,
        10,
        9,
        6,
        -1,
        8,
        -1,
        -1,
        -1,
        -1,
        15,
        14,
        -1,
        -1,
        -1,
        28,
        25,
        22,
        21,
        -1,
        -1,
        24,
        -1,
        -1,
        27,
        -1,
        -1,
        32,
        31,
        -1,
        -1,
        34,
        -1,
        38,
        37,
        -1,
        -1,
        40,
        -1,
        -1
      ],
      "feature": [
        2,
        1,
        3,
        3,
        0,
        -2,
        1,
        -2,
        -2,
        -2,
        -2,
        2,
        0,
        -2,
        -2,
        -2,
        1,
        2,
        1,
        0,
        -2,
        -2,
        1,
        -2,
        -2,
        0,
        -2,
        -2,
        2,
        0,
        -2,
        -2,
        3,
        -2,
        2,
        3,
        -2,
        -2,
        2,
        -2,
        -2
      ],
      "threshold": [
        0.5833333432674408,
        0.550000011920929,
        1.0357122123241425,
        0.9999979138374329,
        0.9835000038146973,
        -2.0,
        0.4833333343267441,
        -2.0,
        -2.0,
        -2.0,
        -2.0,
        0.4166666716337204,
        0.9835000038146973,
        -2.0,
        -2.0,
        -2.0,
        1.2166666984558105,
        2.4833333492279053,
        0.38333334028720856,
        0.9835000038146973,
        -2.0,
        -2.0,
        0.4166666716337204,
        -2.0,
        -2.0,
        3.5164999961853027,
        -2.0,
        -2.0,
        1.8166666626930237,
        3.5,
        -2.0,
        -2.0,
        0.6528286635875702,
        -2.0,
        1.9833333492279053,
        0.9374994933605194,
        -2.0,
        -2.0,
        2.049999952316284,
        -2.0,
        -2.0
      ],
      "values": [
        [
          0.32443026581182655,
          0.31983969184862654,
          0.3557300423395553
        ],
        [
          0.8849507327432701,
          0.11504926725673024,
          0.0
        ],
        [
          0.9696001607394015,
          0.03039983926059868,
          0.0
        ],
        [
          0.9499858133365653,
          0.05001418666343445,
          0.0
        ],
        [
          0.9670563558407107,
          0.03294364415928927,
          0.0
        ],
        [
          1.0,
          0.0,
          0.0
        ],
        [
          0.0,
          1.0,
          0.0
        ],
        [
          0.0,
          1.0,
          0.0
        ],
        [
          0.0,
          1.0,
          0.0
        ],
        [
          0.0,
          1.0,
          0.0
        ],
        [
          1.0,
          0.0,
          0.0
        ],
        [
          0.29058653405283424,
          0.7094134659471671,
          0.0
        ],
        [
          0.7089751312279494,
          0.2910248687720506,
          0.0
        ],
        [
          1.0,
          0.0,
          0.0
        ],
        [
          0.0,
          1.0,
          0.0
        ],
        [
          0.0,
          1.0,
          0.0
        ],
        [
          0.017922763068491717,
          0.431824544018323,
          0.5502526929131875
        ],
        [
          0.03045242014534998,
          0.6086371597426711,
          0.3609104201119789
        ],
        [
          0.04904478574295285,
          0.9509552142570468,
          0.0
        ],
        [
          0.5052985968321395,
          0.4947014031678605,
          0.0
        ],
        [
          1.0,
          0.0,
          0.0
        ],
        [
          0.0,
          1.0,
          0.0
        ],
        [
          0.0,
          1.0,
          0.0
        ],
        [
          0.0,
          1.0,
          0.0
        ],
        [
          0.0,
          1.0,
          0.0
        ],
        [
          0.0,
          0.04795470302750175,
          0.9520452969724984
        ],
        [
          0.0,
          1.0,
          0.0
        ],
        [
          0.0,
          0.0,
          1.0
        ],
        [
          0.0,
          0.1789069581890408,
          0.821093041810959
        ],
        [
          0.0,
          0.6357446808510646,
          0.36425531914893705
        ],
        [
          0.0,
          1.0,
          0.0
        ],
        [
          0.0,
          0.0,
          1.0
        ],
        [
          0.0,
          0.009973564047104061,
          0.9900264359528959
        ],
        [
          0.0,
          0.0,
          1.0
        ],
        [
          0.0,
          0.028765699008136244,
          0.9712343009918639
        ],
        [
          0.0,
          0.0889550461446859,
          0.911044953855314
        ],
        [
          0.0,
          0.3882536382536382,
          0.6117463617463617
        ],
        [
          0.0,
          0.0,
          1.0
        ],
        [
          0.0,
          0.005685191104616651,
          0.9943148088953834
        ],
        [
          0.0,
          0.02296624239070282,
          0.9770337576092971
        ],
        [
          0.0,
          0.0,
          1.0
        ]
      ]
    },
    {
      "children_left": [
        1,
        2,
        3,
        -1,
        -1,
        6,
        7,
        -1,
        -1,
        -1,
        11,
        12,
        13,
        14,
        -1,
        -1,
        17,
        -1,
        19,
        -1,
        -1,
        22,
        -1,
        -1,
        25,
        26,
        -1,
        -1,
        29,
        -1,
        -1
      ],
      "children_right": [
        10,
        5,
        4,
        -1,
        -1,
        9,
        8,
        -1,
        -1,
        -1,
        24,
        21,
        16,
        15,
        -1,
        -1,
        18,
        -1,
        20,
        -1,
        -1,
        23,
        -1,
        -1,
        28,
        27,
        -1,
        -1,
        30,
        -1,
        -1
      ],
      "feature": [
        1,
        0,
        3,
        -2,
        -2,
        0,
        1,
        -2,
        -2,
        -2,
        2,
        1,
        2,
        0,
        -2,
        -2,
        0,
        -2,
        2,
        -2,
        -2,
        0,
        -2,
        -2,
        2,
        0,
        -2,
        -2,
        1,
        -2,
        -2
      ],
      "threshold": [
        0.550000011920929,
        0.9835000038146973,
        0.4249993711709976,
        -2.0,
        -2.0,
        3.600000023841858,
        0.2500000074505806,
        -2.0,
        -2.0,
        -2.0,
        1.850000023841858,
        1.949999988079071,
        0.38333334028720856,
        0.9835000038146973,
        -2.0,
        -2.0,
        1.0164999961853027,
        -2.0,
        0.4166666716337204,
        -2.0,
        -2.0,
        3.5164999961853027,
        -2.0,
        -2.0,
        2.700000047683716,
        3.5164999961853027,
        -2.0,
        -2.0,
        0.6500000059604645,
        -2.0,
        -2.0
      ],
      "values": [
        [
          0.3336145226209911,
          0.32860208066785535,
          0.3377833967111627
        ],
        [
          0.7025851978345048,
          0.19735725281274655,
          0.10005754935274878
        ],
        [
          1.0,
          0.0,
          0.0
        ],
        [
          1.0,
          0.0,
          0.0
        ],
        [
          1.0,
          0.0,
          0.0
        ],
        [
          0.0,
          0.6635757580852609,
          0.3364242419147391
        ],
        [
          0.0,
          1.0,
          0.0
        ],
        [
          0.0,
          1.0,
          0.0
        ],
        [
          0.0,
          1.0,
          0.0
        ],
        [
          0.0,
          0.0,
          1.0
        ],
        [
          0.029415012798944574,
          0.43680746115533636,
          0.5337775260457233
        ],
        [
          0.06449989817005743,
          0.8610173649255012,
          0.07448273690444074
        ],
        [
          0.07063553981876003,
          0.9293644601812395,
          0.0
        ],
        [
          0.894170107349298,
          0.10582989265070186,
          0.0
        ],
        [
          1.0,
          0.0,
          0.0
        ],
        [
          0.0,
          1.0,
          0.0
        ],
        [
          0.008762591106379482,
          0.9912374088936203,
          0.0
        ],
        [
          0.6230809952355744,
          0.3769190047644256,
          0.0
        ],
        [
          0.0,
          1.0,
          0.0
        ],
        [
          0.0,
          1.0,
          0.0
        ],
        [
          0.0,
          1.0,
          0.0
        ],
        [
          0.0,
          0.1425300515168861,
          0.857469948483114
        ],
        [
          0.0,
          1.0,
          0.0
        ],
        [
          0.0,
          0.0,
          1.0
        ],
        [
          0.0,
          0.08115175309615118,
          0.9188482469038484
        ],
        [
          0.0,
          0.2790715858887316,
          0.7209284141112701
        ],
        [
          0.0,
          1.0,
          0.0
        ],
        [
          0.0,
          0.0,
          1.0
        ],
        [
          0.0,
          0.0,
          1.0
        ],
        [
          0.0,
          0.0,
          1.0
        ],
        [
          0.0,
          0.0,
          1.0
        ]
      ]
    },
    {
      "children_left": [
        1,
        2,
        3,
        -1,
        -1,
        6,
        7,
        8,
        -1,
        -1,
        -1,
        12,
        -1,
        -1,
        15,
        -1,
        17,
        18,
        19,
        -1,
        -1,
        22,
        -1,
        -1,
        25,
        -1,
        -1
      ],
      "children_right": [
        14,
